svm_type c_svc
kernel_type linear
nr_class 2
total_sv 2
rho -0.544463
label 1 2
nr_sv 1 1
SV
1.299751106249589e-020 1:2.6843546e+008 2:4.2949673e+009 3:1.3421773e+008 4:4.2949673e+009 5:1.3421773e+008 6:4.2949673e+009 7:67108863 8:4.2949673e+009 9:67108863 10:4.2949673e+009 11:67108863 12:4.2949673e+009 13:2.1810381e+009 14:4.2949673e+009 15:3.2547799e+009 16:4.2949672e+009 17:3.2380027e+009 18:4.2949672e+009 19:3.7748736e+009 20:4.2949672e+009 21:3.766485e+009 22:4.2949672e+009 23:4.0349204e+009 24:4.294967e+009 25:4.0349204e+009 26:4.294967e+009 27:4.0307261e+009 28:4.2949668e+009 29:4.1649439e+009 30:4.2949668e+009 31:4.1628467e+009 32:4.2949663e+009 33:4.2299556e+009 34:4.2949663e+009 35:4.2299556e+009 36:4.2949653e+009 37:4.2624614e+009 38:4.2949653e+009 39:4.2624614e+009 40:4.2949633e+009 41:4.2619372e+009 42:4.2949633e+009 43:4.2787144e+009 44:4.2949592e+009 45:4.2784522e+009 46:4.2949594e+009 47:4.2868408e+009 48:4.2949512e+009 49:4.2868408e+009 50:4.2949514e+009 51:4.2867098e+009 52:4.294935e+009 53:4.2909041e+009 54:4.2949356e+009 55:4.2908385e+009 56:4.2949028e+009 57:4.2929357e+009 58:4.2949038e+009 59:4.2929029e+009 60:4.2948383e+009 61:4.2939515e+009 62:4.2948403e+009 63:4.2939515e+009 64:4.2947092e+009 65:4.2939351e+009 66:4.2947057e+009 67:33046527 68:4.294443e+009 69:8191 70:4.294443e+009 71:8191 72:4.2939187e+009 73:8191 74:4.2939187e+009 75:4095 76:4.2929024e+009 77:4.261417e+009 78:4.2929357e+009 79:4.2948383e+009 80:4.2908385e+009 81:4.2949038e+009 82:4.2909041e+009 83:4.2949028e+009 84:4.2867098e+009 85:4.2949356e+009 86:4.2868408e+009 87:4.2949356e+009 88:4.2784522e+009 89:4.294935e+009 90:4.2787144e+009 91:4.2949514e+009 92:4.2619372e+009 93:4.2949512e+009 94:4.2624614e+009 95:4.2949594e+009 96:4.228907e+009 97:4.2949592e+009 98:4.2299556e+009 99:4.2949633e+009 100:4.1628467e+009 101:4.2949633e+009 102:4.1649439e+009 103:4.2949633e+009 104:4.0307261e+009 105:4.2949653e+009 106:4.0349204e+009 107:4.2949653e+009 108:3.766485e+009 109:4.2949663e+009 110:3.7748736e+009 111:4.2949663e+009 112:3.2380027e+009 113:4.2949668e+009 114:3.2547799e+009 115:4.2949668e+009 116:2.1810381e+009 117:4.2949668e+009 118:2.2145925e+009 119:4.294967e+009 120:2.2145925e+009 121:4.294967e+009 122:3.3554432e+009 123:4.2949672e+009 124:4.2949673e+009 125:4.2949673e+009 126:4.2949673e+009 127:4.2949673e+009 128:4.2949673e+009 
-1.299751106249589e-020 1:4.2781906e+009 2:4.2949673e+009 3:4.2278589e+009 4:4.2949673e+009 5:2.1474842e+009 6:4.2949673e+009 7:511 8:4.2949673e+009 9:8372735 10:4.2949673e+009 11:16761343 12:4.2949673e+009 13:2.1474678e+009 14:4.2949673e+009 15:4.2949514e+009 16:4.2949672e+009 17:4.2949514e+009 18:4.2949668e+009 19:4.2949514e+009 20:4.2949653e+009 21:4.2949514e+009 22:4.2949632e+009 23:4.2949514e+009 24:4.2949592e+009 25:4.2949514e+009 26:4.2949514e+009 27:4.2949514e+009 28:4.2949519e+009 29:4.2949514e+009 30:4.2949356e+009 31:4.2949514e+009 32:4.2949366e+009 33:4.2949514e+009 34:4.2949366e+009 35:4.2949514e+009 36:4.2949366e+009 37:4.2949514e+009 38:4.2949366e+009 39:4.2949514e+009 40:4.2949366e+009 41:4.2949514e+009 42:4.2949366e+009 43:4.2949514e+009 44:4.2949366e+009 45:4.2949514e+009 46:4.2949366e+009 47:4.2949514e+009 48:4.2949366e+009 49:4.2949514e+009 50:4.2949366e+009 51:4.2949514e+009 52:4.2949366e+009 53:4.2949514e+009 54:4.2949356e+009 55:4.2949514e+009 56:4.2949346e+009 57:4.2949514e+009 58:4.2949509e+009 59:4.2949514e+009 60:4.2949591e+009 61:4.2949514e+009 62:4.2949653e+009 63:2.1474678e+009 64:4.2949672e+009 65:8372735 66:4.2949672e+009 67:511 68:4.2949668e+009 69:511 70:4.2949652e+009 71:511 72:4.2949632e+009 73:511 74:4.2949591e+009 75:4.2949514e+009 76:4.2948367e+009 77:4.2949514e+009 78:4.294444e+009 79:4.2949514e+009 80:4.2939208e+009 81:4.2949514e+009 82:4.2939228e+009 83:4.2949514e+009 84:4.2939843e+009 85:4.2949514e+009 86:4.2939843e+009 87:4.2949514e+009 88:4.2939843e+009 89:4.2949514e+009 90:4.2939843e+009 91:4.2949514e+009 92:4.2939843e+009 93:4.2949514e+009 94:4.2939843e+009 95:4.2949514e+009 96:4.2939843e+009 97:4.2949514e+009 98:4.2939843e+009 99:4.2949514e+009 100:4.2939843e+009 101:4.2949514e+009 102:4.2939843e+009 103:4.2949514e+009 104:4.2939843e+009 105:4.2949514e+009 106:4.2939843e+009 107:4.2949514e+009 108:4.2939843e+009 109:4.2949514e+009 110:4.2939843e+009 111:4.2949514e+009 112:4.2939843e+009 113:4.2949514e+009 114:4.2939843e+009 115:4.2949514e+009 116:4.2939228e+009 117:4.2949514e+009 118:4.2944431e+009 119:4.2949514e+009 120:4.2947052e+009 121:3.7580969e+009 122:4.2948362e+009 123:511 124:4.2949591e+009 125:511 126:4.294967e+009 127:511 128:4.2949672e+009 
